2
8
3
25
0 0 0 
0 0 0 
0 0 -0.01 
-0.01 0 0 
0 0 -0.01 
0 -0.01 0 
-0.01 -0.01 0 
-0.01 0 -0.01 
0 0 0 0 0 0 0 -0.01 0 
-0.01 -0.01 -0.01 -0.01 -0.01 -0.01 -0.01 -0.01 -0.01 
-0.01 0 -0.01 -0.01 -0.01 -0.01 -0.01 -0.01 -0.01 
0 0 -0.01 0 -0.01 -0.01 0 -0.01 0 
0 -0.01 0 0 -0.01 -0.01 -0.01 -0.01 0 
0 0 -0.01 0 0 -0.01 -0.01 -0.01 -0.01 
-0.01 0 -0.01 0 0 0 -0.01 0 0 
0 -0.01 0 0 -0.01 0 0 -0.01 0 
0 0 0 0 0 0 0 -0.01 0 
-0.01 -0.01 -0.01 -0.01 -0.01 -0.01 -0.01 -0.01 -0.01 
-0.01 0 -0.01 -0.01 -0.01 -0.01 -0.01 -0.01 -0.01 
0 0 -0.01 0 -0.01 -0.01 0 -0.01 0 
0 -0.01 0 0 -0.01 -0.01 -0.01 -0.01 0 
0 0 -0.01 0 0 -0.01 -0.01 -0.01 -0.01 
-0.01 0 -0.01 0 0 0 -0.01 0 0 
0 -0.01 0 0 -0.01 0 0 -0.01 0 
0 0 0 0 0 0 0 -0.01 0 
-0.01 -0.01 -0.01 -0.01 -0.01 -0.01 -0.01 -0.01 -0.01 
-0.01 0 -0.01 -0.01 -0.01 -0.01 -0.01 -0.01 -0.01 
0 0 -0.01 0 -0.01 -0.01 0 -0.01 0 
0 -0.01 0 0 -0.01 -0.01 -0.01 -0.01 0 
0 0 -0.01 0 0 -0.01 -0.01 -0.01 -0.01 
-0.01 0 -0.01 0 0 0 -0.01 0 0 
0 -0.01 0 0 -0.01 0 0 -0.01 0 
0 0 0 0 0 0 0 -0.01 0 
-0.01 -0.01 -0.01 -0.01 -0.01 -0.01 -0.01 -0.01 -0.01 
-0.01 0 -0.01 -0.01 -0.01 -0.01 -0.01 -0.01 -0.01 
0 0 -0.01 0 -0.01 -0.01 0 -0.01 0 
0 -0.01 0 0 -0.01 -0.01 -0.01 -0.01 0 
0 0 -0.01 0 0 -0.01 -0.01 -0.01 -0.01 
-0.01 0 -0.01 0 0 0 -0.01 0 0 
0 -0.01 0 0 -0.01 0 0 -0.01 0 
0 0 0 0 0 0 0 -0.01 0 
-0.01 -0.01 -0.01 -0.01 -0.01 -0.01 -0.01 -0.01 -0.01 
-0.01 0 -0.01 -0.01 -0.01 -0.01 -0.01 -0.01 -0.01 
0 0 -0.01 0 -0.01 -0.01 0 -0.01 0 
0 -0.01 0 0 -0.01 -0.01 -0.01 -0.01 0 
0 0 -0.01 0 0 -0.01 -0.01 -0.01 -0.01 
-0.01 0 -0.01 0 0 0 -0.01 0 0 
0 -0.01 0 0 -0.01 0 0 -0.01 0 
0 0 0 0 0 0 0 -0.01 0 
-0.01 -0.01 -0.01 -0.01 -0.01 -0.01 -0.01 -0.01 -0.01 
-0.01 0 -0.01 -0.01 -0.01 -0.01 -0.01 -0.01 -0.01 
0 0 -0.01 0 -0.01 -0.01 0 -0.01 0 
0 -0.01 0 0 -0.01 -0.01 -0.01 -0.01 0 
0 0 -0.01 0 0 -0.01 -0.01 -0.01 -0.01 
-0.01 0 -0.01 0 0 0 -0.01 0 0 
0 -0.01 0 0 -0.01 0 0 -0.01 0 
0 0 0 0 0 0 0 -0.01 0 
-0.01 -0.01 -0.01 -0.01 -0.01 -0.01 -0.01 -0.01 -0.01 
-0.01 0 -0.01 -0.01 -0.01 -0.01 -0.01 -0.01 -0.01 
0 0 -0.01 0 -0.01 -0.01 0 -0.01 0 
0 -0.01 0 0 -0.01 -0.01 -0.01 -0.01 0 
0 0 -0.01 0 0 -0.01 -0.01 -0.01 -0.01 
-0.01 0 -0.01 0 0 0 -0.01 0 0 
0 -0.01 0 0 -0.01 0 0 -0.01 0 
0 0 0 0 0 0 0 -0.01 0 
-0.01 -0.01 -0.01 -0.01 -0.01 -0.01 -0.01 -0.01 -0.01 
-0.01 0 -0.01 -0.01 -0.01 -0.01 -0.01 -0.01 -0.01 
0 0 -0.01 0 -0.01 -0.01 0 -0.01 0 
0 -0.01 0 0 -0.01 -0.01 -0.01 -0.01 0 
0 0 -0.01 0 0 -0.01 -0.01 -0.01 -0.01 
-0.01 0 -0.01 0 0 0 -0.01 0 0 
0 -0.01 0 0 -0.01 0 0 -0.01 0 
0 0 0 0 0 0 0 -0.01 0 
-0.01 -0.01 -0.01 -0.01 -0.01 -0.01 -0.01 -0.01 -0.01 
-0.01 0 -0.01 -0.01 -0.01 -0.01 -0.01 -0.01 -0.01 
0 0 -0.01 0 -0.01 -0.01 0 -0.01 0 
0 -0.01 0 0 -0.01 -0.01 -0.01 -0.01 0 
0 0 -0.01 0 0 -0.01 -0.01 -0.01 -0.01 
-0.01 0 -0.01 0 0 0 -0.01 0 0 
0 -0.01 0 0 -0.01 0 0 -0.01 0 
0 0 0 0 0 0 0 -0.01 0 
-0.01 -0.01 -0.01 -0.01 -0.01 -0.01 -0.01 -0.01 -0.01 
-0.01 0 -0.01 -0.01 -0.01 -0.01 -0.01 -0.01 -0.01 
0 0 -0.01 0 -0.01 -0.01 0 -0.01 0 
0 -0.01 0 0 -0.01 -0.01 -0.01 -0.01 0 
0 0 -0.01 0 0 -0.01 -0.01 -0.01 -0.01 
-0.01 0 -0.01 0 0 0 -0.01 0 0 
0 -0.01 0 0 -0.01 0 0 -0.01 0 
0 0 0 0 0 0 0 -0.01 0 
-0.01 -0.01 -0.01 -0.01 -0.01 -0.01 -0.01 -0.01 -0.01 
-0.01 0 -0.01 -0.01 -0.01 -0.01 -0.01 -0.01 -0.01 
0 0 -0.01 0 -0.01 -0.01 0 -0.01 0 
0 -0.01 0 0 -0.01 -0.01 -0.01 -0.01 0 
0 0 -0.01 0 0 -0.01 -0.01 -0.01 -0.01 
-0.01 0 -0.01 0 0 0 -0.01 0 0 
0 -0.01 0 0 -0.01 0 0 -0.01 0 
0 0 0 0 0 0 0 -0.01 0 
-0.01 -0.01 -0.01 -0.01 -0.01 -0.01 -0.01 -0.01 -0.01 
-0.01 0 -0.01 -0.01 -0.01 -0.01 -0.01 -0.01 -0.01 
0 0 -0.01 0 -0.01 -0.01 0 -0.01 0 
0 -0.01 0 0 -0.01 -0.01 -0.01 -0.01 0 
0 0 -0.01 0 0 -0.01 -0.01 -0.01 -0.01 
-0.01 0 -0.01 0 0 0 -0.01 0 0 
0 -0.01 0 0 -0.01 0 0 -0.01 0 
0 0 0 0 0 0 0 -0.01 0 
-0.01 -0.01 -0.01 -0.01 -0.01 -0.01 -0.01 -0.01 -0.01 
-0.01 0 -0.01 -0.01 -0.01 -0.01 -0.01 -0.01 -0.01 
0 0 -0.01 0 -0.01 -0.01 0 -0.01 0 
0 -0.01 0 0 -0.01 -0.01 -0.01 -0.01 0 
0 0 -0.01 0 0 -0.01 -0.01 -0.01 -0.01 
-0.01 0 -0.01 0 0 0 -0.01 0 0 
0 -0.01 0 0 -0.01 0 0 -0.01 0 
0 0 0 0 0 0 0 -0.01 0 
-0.01 -0.01 -0.01 -0.01 -0.01 -0.01 -0.01 -0.01 -0.01 
-0.01 0 -0.01 -0.01 -0.01 -0.01 -0.01 -0.01 -0.01 
0 0 -0.01 0 -0.01 -0.01 0 -0.01 0 
0 -0.01 0 0 -0.01 -0.01 -0.01 -0.01 0 
0 0 -0.01 0 0 -0.01 -0.01 -0.01 -0.01 
-0.01 0 -0.01 0 0 0 -0.01 0 0 
0 -0.01 0 0 -0.01 0 0 -0.01 0 
0 0 0 0 0 0 0 -0.01 0 
-0.01 -0.01 -0.01 -0.01 -0.01 -0.01 -0.01 -0.01 -0.01 
-0.01 0 -0.01 -0.01 -0.01 -0.01 -0.01 -0.01 -0.01 
0 0 -0.01 0 -0.01 -0.01 0 -0.01 0 
0 -0.01 0 0 -0.01 -0.01 -0.01 -0.01 0 
0 0 -0.01 0 0 -0.01 -0.01 -0.01 -0.01 
-0.01 0 -0.01 0 0 0 -0.01 0 0 
0 -0.01 0 0 -0.01 0 0 -0.01 0 
0 0 0 0 0 0 0 -0.01 0 
-0.01 -0.01 -0.01 -0.01 -0.01 -0.01 -0.01 -0.01 -0.01 
-0.01 0 -0.01 -0.01 -0.01 -0.01 -0.01 -0.01 -0.01 
0 0 -0.01 0 -0.01 -0.01 0 -0.01 0 
0 -0.01 0 0 -0.01 -0.01 -0.01 -0.01 0 
0 0 -0.01 0 0 -0.01 -0.01 -0.01 -0.01 
-0.01 0 -0.01 0 0 0 -0.01 0 0 
0 -0.01 0 0 -0.01 0 0 -0.01 0 
0 0 0 0 0 0 0 -0.01 0 
-0.01 -0.01 -0.01 -0.01 -0.01 -0.01 -0.01 -0.01 -0.01 
-0.01 0 -0.01 -0.01 -0.01 -0.01 -0.01 -0.01 -0.01 
0 0 -0.01 0 -0.01 -0.01 0 -0.01 0 
0 -0.01 0 0 -0.01 -0.01 -0.01 -0.01 0 
0 0 -0.01 0 0 -0.01 -0.01 -0.01 -0.01 
-0.01 0 -0.01 0 0 0 -0.01 0 0 
0 -0.01 0 0 -0.01 0 0 -0.01 0 
0 0 0 0 0 0 0 -0.01 0 
-0.01 -0.01 -0.01 -0.01 -0.01 -0.01 -0.01 -0.01 -0.01 
-0.01 0 -0.01 -0.01 -0.01 -0.01 -0.01 -0.01 -0.01 
0 0 -0.01 0 -0.01 -0.01 0 -0.01 0 
0 -0.01 0 0 -0.01 -0.01 -0.01 -0.01 0 
0 0 -0.01 0 0 -0.01 -0.01 -0.01 -0.01 
-0.01 0 -0.01 0 0 0 -0.01 0 0 
0 -0.01 0 0 -0.01 0 0 -0.01 0 
0 0 0 0 0 0 0 -0.01 0 
-0.01 -0.01 -0.01 -0.01 -0.01 -0.01 -0.01 -0.01 -0.01 
-0.01 0 -0.01 -0.01 -0.01 -0.01 -0.01 -0.01 -0.01 
0 0 -0.01 0 -0.01 -0.01 0 -0.01 0 
0 -0.01 0 0 -0.01 -0.01 -0.01 -0.01 0 
0 0 -0.01 0 0 -0.01 -0.01 -0.01 -0.01 
-0.01 0 -0.01 0 0 0 -0.01 0 0 
0 -0.01 0 0 -0.01 0 0 -0.01 0 
0 0 0 0 0 0 0 -0.01 0 
-0.01 -0.01 -0.01 -0.01 -0.01 -0.01 -0.01 -0.01 -0.01 
-0.01 0 -0.01 -0.01 -0.01 -0.01 -0.01 -0.01 -0.01 
0 0 -0.01 0 -0.01 -0.01 0 -0.01 0 
0 -0.01 0 0 -0.01 -0.01 -0.01 -0.01 0 
0 0 -0.01 0 0 -0.01 -0.01 -0.01 -0.01 
-0.01 0 -0.01 0 0 0 -0.01 0 0 
0 -0.01 0 0 -0.01 0 0 -0.01 0 
0 0 0 0 0 0 0 -0.01 0 
-0.01 -0.01 -0.01 -0.01 -0.01 -0.01 -0.01 -0.01 -0.01 
-0.01 0 -0.01 -0.01 -0.01 -0.01 -0.01 -0.01 -0.01 
0 0 -0.01 0 -0.01 -0.01 0 -0.01 0 
0 -0.01 0 0 -0.01 -0.01 -0.01 -0.01 0 
0 0 -0.01 0 0 -0.01 -0.01 -0.01 -0.01 
-0.01 0 -0.01 0 0 0 -0.01 0 0 
0 -0.01 0 0 -0.01 0 0 -0.01 0 
0 0 0 0 0 0 0 -0.01 0 
-0.01 -0.01 -0.01 -0.01 -0.01 -0.01 -0.01 -0.01 -0.01 
-0.01 0 -0.01 -0.01 -0.01 -0.01 -0.01 -0.01 -0.01 
0 0 -0.01 0 -0.01 -0.01 0 -0.01 0 
0 -0.01 0 0 -0.01 -0.01 -0.01 -0.01 0 
0 0 -0.01 0 0 -0.01 -0.01 -0.01 -0.01 
-0.01 0 -0.01 0 0 0 -0.01 0 0 
0 -0.01 0 0 -0.01 0 0 -0.01 0 
0 0 0 0 0 0 0 -0.01 0 
-0.01 -0.01 -0.01 -0.01 -0.01 -0.01 -0.01 -0.01 -0.01 
-0.01 0 -0.01 -0.01 -0.01 -0.01 -0.01 -0.01 -0.01 
0 0 -0.01 0 -0.01 -0.01 0 -0.01 0 
0 -0.01 0 0 -0.01 -0.01 -0.01 -0.01 0 
0 0 -0.01 0 0 -0.01 -0.01 -0.01 -0.01 
-0.01 0 -0.01 0 0 0 -0.01 0 0 
0 -0.01 0 0 -0.01 0 0 -0.01 0 
0 0 0 0 0 0 0 -0.01 0 
-0.01 -0.01 -0.01 -0.01 -0.01 -0.01 -0.01 -0.01 -0.01 
-0.01 0 -0.01 -0.01 -0.01 -0.01 -0.01 -0.01 -0.01 
0 0 -0.01 0 -0.01 -0.01 0 -0.01 0 
0 -0.01 0 0 -0.01 -0.01 -0.01 -0.01 0 
0 0 -0.01 0 0 -0.01 -0.01 -0.01 -0.01 
-0.01 0 -0.01 0 0 0 -0.01 0 0 
0 -0.01 0 0 -0.01 0 0 -0.01 0 
1.01 1.01 1.01 1 1 1.01 1.01 1.01 1.01 
-0.01 0 -0.01 0.049377653249127164 0 -0.01 -0.01 0.01 0 
0.009999999999999506 -4.961309141293668e-16 -4.961309141293668e-16 0.009999999999999506 -4.961309141293668e-16 -4.961309141293668e-16 -4.961309141293668e-16 -4.961309141293668e-16 0.009999999999999506 
