2
6
3
6
-0.01 0 0 
0 -0.01 -0.01 
-0.0069687291559685175 0 0.009999999999999756 
0.10683648432822197 -0.01 -0.01 
0.3099999999999994 -0.01 0.24999999999999936 
0.6199999999999997 -0.01 0.5315232112691273 
-0.01 -0.01 -0.01 -0.01 -0.01 -0.01 -0.01 
-0.01 -0.01 -0.01 -0.01 -0.01 -0.01 -0.01 
-0.01 -0.01 -0.01 -0.01 -0.01 0 -0.01 
-0.01 -0.01 -0.01 0 -0.01 0 -0.01 
0 -0.01 -0.01 0 0 -0.01 0 
0 -0.01 0 0 -0.01 -0.01 -0.01 
-0.01 -0.01 -0.01 -0.01 -0.01 -0.01 -0.01 
-0.01 -0.01 -0.01 -0.01 -0.01 -0.01 -0.01 
-0.01 -0.01 -0.01 -0.01 -0.01 0 -0.01 
-0.01 -0.01 -0.01 0 -0.01 0 -0.01 
0 -0.01 -0.01 0 0 -0.01 0 
0 -0.01 0 0 -0.01 -0.01 -0.01 
-0.01 -0.01 -0.01 -0.01 -0.01 -0.01 -0.01 
-0.01 -0.01 -0.01 -0.01 -0.01 -0.01 -0.01 
-0.01 -0.01 -0.01 -0.01 -0.01 0 -0.01 
-0.01 -0.01 -0.01 0 -0.01 0 -0.01 
0 -0.01 -0.01 0 0 -0.01 0 
0 -0.01 0 0 -0.01 -0.01 -0.01 
-0.01 -0.01 -0.01 -0.01 -0.01 -0.01 -0.01 
-0.01 -0.01 -0.01 -0.01 -0.01 -0.01 -0.01 
-0.01 -0.01 -0.01 -0.01 -0.01 0 -0.01 
-0.01 -0.01 -0.01 0 -0.01 0 -0.01 
0 -0.01 -0.01 0 0 -0.01 0 
0 -0.01 0 0 -0.01 -0.01 -0.01 
-0.01 -0.01 -0.01 -0.01 -0.01 -0.01 -0.01 
-0.01 -0.01 -0.01 -0.01 -0.01 -0.01 -0.01 
-0.01 -0.01 -0.01 -0.01 -0.01 0 -0.01 
-0.01 -0.01 -0.01 0 -0.01 0 -0.01 
0 -0.01 -0.01 0 0 -0.01 0 
0 -0.01 0 0 -0.01 -0.01 -0.01 
1.01 1.01 1 1.01 1.01 1.01 1.01 
-0.01 0.01 0 0.019999999999999997 0 0.0 0 
0.009999999999999506 0.009999999999999506 -4.961309141293668e-16 -4.961309141293668e-16 0.009999999999999506 0.009999999999999506 -4.961309141293668e-16 
