2
8
3
5
0 0 -0.01 
0 -0.01 0 
0 0 0.01 
-0.01 -0.01 0 
-0.01 -0.01 -0.01 
-0.01 0 -0.01 
0 -0.01 -0.01 
-0.01 -0.01 0 
0.04 0.03 0.03 0.04 0.03 0.03 0.03 0.03 0.04 
0.04 0.04 0.03 0.03 0.03 0.04 0.04 0.04 0.04 
0.04 0.03 0.03 0.03 0.03 0.04 0.04 0.03 0.03 
0.04 0.03 0.04 0.03 0.04 0.04 0.04 0.04 0.04 
-0.01 0 -0.01 -0.01 -0.01 0 0 -0.01 -0.01 
-0.01 -0.01 0 -0.01 0 -0.01 -0.01 0 -0.01 
0.03 0.03 0.04 0.04 0.04 0.04 0.04 0.03 0.04 
0.04 0.03 0.03 0.03 0.04 0.04 0.04 0.04 0.04 
0.04 0.03 0.03 0.04 0.03 0.03 0.03 0.03 0.04 
0.04 0.04 0.03 0.03 0.03 0.04 0.04 0.04 0.04 
0.04 0.03 0.03 0.03 0.03 0.04 0.04 0.03 0.03 
0.04 0.03 0.04 0.03 0.04 0.04 0.04 0.04 0.04 
-0.01 0 -0.01 -0.01 -0.01 0 0 -0.01 -0.01 
-0.01 -0.01 0 -0.01 0 -0.01 -0.01 0 -0.01 
0.03 0.03 0.04 0.04 0.04 0.04 0.04 0.03 0.04 
0.04 0.03 0.03 0.03 0.04 0.04 0.04 0.04 0.04 
0.04 0.03 0.03 0.04 0.03 0.03 0.03 0.03 0.04 
0.04 0.04 0.03 0.03 0.03 0.04 0.04 0.04 0.04 
0.04 0.03 0.03 0.03 0.03 0.04 0.04 0.03 0.03 
0.04 0.03 0.04 0.03 0.04 0.04 0.04 0.04 0.04 
-0.01 0 -0.01 -0.01 -0.01 0 0 -0.01 -0.01 
-0.01 -0.01 0 -0.01 0 -0.01 -0.01 0 -0.01 
0.03 0.03 0.04 0.04 0.04 0.04 0.04 0.03 0.04 
0.04 0.03 0.03 0.03 0.04 0.04 0.04 0.04 0.04 
0.04 0.03 0.03 0.04 0.03 0.03 0.03 0.03 0.04 
0.04 0.04 0.03 0.03 0.03 0.04 0.04 0.04 0.04 
0.04 0.03 0.03 0.03 0.03 0.04 0.04 0.03 0.03 
0.04 0.03 0.04 0.03 0.04 0.04 0.04 0.04 0.04 
-0.01 0 -0.01 -0.01 -0.01 0 0 -0.01 -0.01 
-0.01 -0.01 0 -0.01 0 -0.01 -0.01 0 -0.01 
0.03 0.03 0.04 0.04 0.04 0.04 0.04 0.03 0.04 
0.04 0.03 0.03 0.03 0.04 0.04 0.04 0.04 0.04 
1.01 1 1 1.01 1 1 1 1 1.01 
0.01 0 -0.01 -0.01 -0.01 0.019999999999999997 0 0.0 0 
0.009999999999999506 -0.009999999999999858 -0.009999999999999858 -0.009999999999999858 -0.009999999999999858 0.009999999999999506 0.009999999999999506 -0.009999999999999858 -0.009999999999999858 
