2
8
3
5
0 0 -0.01 
0 -0.01 0 
0 0 -0.01 
-0.01 -0.01 0 
-0.01 -0.01 -4.961309141293668e-16 
-0.01 0 0.019999999999999508 
0 -0.01 0.019999999999999508 
-0.01 -0.01 0.009999999999999506 
0 -0.01 -0.01 0 -0.01 -0.01 -0.01 -0.01 0 
0 0 -0.01 -0.01 -0.01 0 0 0 0 
0 -0.01 -0.01 -0.01 -0.01 0 0 -0.01 -0.01 
0 -0.01 0 -0.01 0 0 0 0 0 
-0.01 0 -0.01 -0.01 -0.01 0 0 -0.01 -0.01 
-0.01 -0.01 0 -0.01 0 -0.01 -0.01 0 -0.01 
-0.01 -0.01 0 0 0 0 0 -0.01 0 
0 -0.01 -0.01 -0.01 0 0 0 0 0 
0 -0.01 -0.01 0 -0.01 -0.01 -0.01 -0.01 0 
0 0 -0.01 -0.01 -0.01 0 0 0 0 
0 -0.01 -0.01 -0.01 -0.01 0 0 -0.01 -0.01 
0 -0.01 0 -0.01 0 0 0 0 0 
-0.01 0 -0.01 -0.01 -0.01 0 0 -0.01 -0.01 
-0.01 -0.01 0 -0.01 0 -0.01 -0.01 0 -0.01 
-0.01 -0.01 0 0 0 0 0 -0.01 0 
0 -0.01 -0.01 -0.01 0 0 0 0 0 
0 -0.01 -0.01 0 -0.01 -0.01 -0.01 -0.01 0 
0 0 -0.01 -0.01 -0.01 0 0 0 0 
0 -0.01 -0.01 -0.01 -0.01 0 0 -0.01 -0.01 
0 -0.01 0 -0.01 0 0 0 0 0 
-0.01 0 -0.01 -0.01 -0.01 0 0 -0.01 -0.01 
-0.01 -0.01 0 -0.01 0 -0.01 -0.01 0 -0.01 
-0.01 -0.01 0 0 0 0 0 -0.01 0 
0 -0.01 -0.01 -0.01 0 0 0 0 0 
0 -0.01 -0.01 0 -0.01 -0.01 -0.01 -0.01 0 
0 0 -0.01 -0.01 -0.01 0 0 0 0 
0 -0.01 -0.01 -0.01 -0.01 0 0 -0.01 -0.01 
0 -0.01 0 -0.01 0 0 0 0 0 
-0.01 0 -0.01 -0.01 -0.01 0 0 -0.01 -0.01 
-0.01 -0.01 0 -0.01 0 -0.01 -0.01 0 -0.01 
-0.01 -0.01 0 0 0 0 0 -0.01 0 
0 -0.01 -0.01 -0.01 0 0 0 0 0 
1 1.01 1 1 1.01 1.01 1 1.01 1 
-0.01 0.01 0.01 -0.01 0.01 0 0.0 0 0.0 
0.009999999999999506 -4.961309141293668e-16 -4.961309141293668e-16 -4.961309141293668e-16 -4.961309141293668e-16 0.009999999999999506 0.009999999999999506 -4.961309141293668e-16 -4.961309141293668e-16 
